digraph Tree {
node [shape=box, style="filled, rounded", color="black", fontname="helvetica"] ;
edge [fontname="helvetica"] ;
0 [label="worst area <= 880.75\ngini = 0.463\nsamples = 483\nvalue = [176, 307]\nclass = benign", fillcolor="#abd5f4"] ;
1 [label="worst concave points <= 0.136\ngini = 0.165\nsamples = 330\nvalue = [30, 300]\nclass = benign", fillcolor="#4da7e8"] ;
0 -> 1 [labeldistance=2.5, labelangle=45, headlabel="True"] ;
2 [label="worst fractal dimension <= 0.055\ngini = 0.034\nsamples = 289\nvalue = [5, 284]\nclass = benign", fillcolor="#3c9fe5"] ;
1 -> 2 ;
3 [label="gini = 0.0\nsamples = 1\nvalue = [1, 0]\nclass = malignant", fillcolor="#e58139"] ;
2 -> 3 ;
4 [label="worst area <= 785.75\ngini = 0.027\nsamples = 288\nvalue = [4, 284]\nclass = benign", fillcolor="#3c9ee5"] ;
2 -> 4 ;
5 [label="(...)", fillcolor="#C0C0C0"] ;
4 -> 5 ;
10 [label="(...)", fillcolor="#C0C0C0"] ;
4 -> 10 ;
17 [label="worst texture <= 25.67\ngini = 0.476\nsamples = 41\nvalue = [25, 16]\nclass = malignant", fillcolor="#f6d2b8"] ;
1 -> 17 ;
18 [label="worst area <= 810.3\ngini = 0.291\nsamples = 17\nvalue = [3, 14]\nclass = benign", fillcolor="#63b2eb"] ;
17 -> 18 ;
19 [label="(...)", fillcolor="#C0C0C0"] ;
18 -> 19 ;
20 [label="(...)", fillcolor="#C0C0C0"] ;
18 -> 20 ;
23 [label="mean smoothness <= 0.091\ngini = 0.153\nsamples = 24\nvalue = [22, 2]\nclass = malignant", fillcolor="#e78c4b"] ;
17 -> 23 ;
24 [label="(...)", fillcolor="#C0C0C0"] ;
23 -> 24 ;
27 [label="(...)", fillcolor="#C0C0C0"] ;
23 -> 27 ;
28 [label="worst concavity <= 0.208\ngini = 0.087\nsamples = 153\nvalue = [146, 7]\nclass = malignant", fillcolor="#e68742"] ;
0 -> 28 [labeldistance=2.5, labelangle=-45, headlabel="False"] ;
29 [label="worst symmetry <= 0.284\ngini = 0.494\nsamples = 9\nvalue = [4, 5]\nclass = benign", fillcolor="#d7ebfa"] ;
28 -> 29 ;
30 [label="worst texture <= 29.77\ngini = 0.278\nsamples = 6\nvalue = [1, 5]\nclass = benign", fillcolor="#61b1ea"] ;
29 -> 30 ;
31 [label="(...)", fillcolor="#C0C0C0"] ;
30 -> 31 ;
32 [label="(...)", fillcolor="#C0C0C0"] ;
30 -> 32 ;
33 [label="gini = 0.0\nsamples = 3\nvalue = [3, 0]\nclass = malignant", fillcolor="#e58139"] ;
29 -> 33 ;
34 [label="texture error <= 0.455\ngini = 0.027\nsamples = 144\nvalue = [142, 2]\nclass = malignant", fillcolor="#e5833c"] ;
28 -> 34 ;
35 [label="gini = 0.0\nsamples = 1\nvalue = [0, 1]\nclass = benign", fillcolor="#399de5"] ;
34 -> 35 ;
36 [label="area error <= 22.005\ngini = 0.014\nsamples = 143\nvalue = [142, 1]\nclass = malignant", fillcolor="#e5823a"] ;
34 -> 36 ;
37 [label="(...)", fillcolor="#C0C0C0"] ;
36 -> 37 ;
40 [label="(...)", fillcolor="#C0C0C0"] ;
36 -> 40 ;
}