digraph Tree {
node [shape=box, style="filled, rounded", color="black", fontname="helvetica"] ;
edge [fontname="helvetica"] ;
0 [label="worst area <= 880.75\ngini = 0.463\nsamples = 483\nvalue = [176, 307]\nclass = benign", fillcolor="#abd5f4"] ;
1 [label="worst concave points <= 0.136\ngini = 0.165\nsamples = 330\nvalue = [30, 300]\nclass = benign", fillcolor="#4da7e8"] ;
0 -> 1 [labeldistance=2.5, labelangle=45, headlabel="True"] ;
2 [label="worst symmetry <= 0.157\ngini = 0.034\nsamples = 289\nvalue = [5, 284]\nclass = benign", fillcolor="#3c9fe5"] ;
1 -> 2 ;
3 [label="gini = 0.0\nsamples = 1\nvalue = [1, 0]\nclass = malignant", fillcolor="#e58139"] ;
2 -> 3 ;
4 [label="gini = 0.027\nsamples = 288\nvalue = [4, 284]\nclass = benign", fillcolor="#3c9ee5"] ;
2 -> 4 ;
5 [label="worst texture <= 25.67\ngini = 0.476\nsamples = 41\nvalue = [25, 16]\nclass = malignant", fillcolor="#f6d2b8"] ;
1 -> 5 ;
6 [label="gini = 0.291\nsamples = 17\nvalue = [3, 14]\nclass = benign", fillcolor="#63b2eb"] ;
5 -> 6 ;
7 [label="gini = 0.153\nsamples = 24\nvalue = [22, 2]\nclass = malignant", fillcolor="#e78c4b"] ;
5 -> 7 ;
8 [label="worst concavity <= 0.208\ngini = 0.087\nsamples = 153\nvalue = [146, 7]\nclass = malignant", fillcolor="#e68742"] ;
0 -> 8 [labeldistance=2.5, labelangle=-45, headlabel="False"] ;
9 [label="worst texture <= 29.77\ngini = 0.494\nsamples = 9\nvalue = [4, 5]\nclass = benign", fillcolor="#d7ebfa"] ;
8 -> 9 ;
10 [label="gini = 0.278\nsamples = 6\nvalue = [1, 5]\nclass = benign", fillcolor="#61b1ea"] ;
9 -> 10 ;
11 [label="gini = 0.0\nsamples = 3\nvalue = [3, 0]\nclass = malignant", fillcolor="#e58139"] ;
9 -> 11 ;
12 [label="texture error <= 0.455\ngini = 0.027\nsamples = 144\nvalue = [142, 2]\nclass = malignant", fillcolor="#e5833c"] ;
8 -> 12 ;
13 [label="gini = 0.0\nsamples = 1\nvalue = [0, 1]\nclass = benign", fillcolor="#399de5"] ;
12 -> 13 ;
14 [label="gini = 0.014\nsamples = 143\nvalue = [142, 1]\nclass = malignant", fillcolor="#e5823a"] ;
12 -> 14 ;
}